<?xml version="1.0" encoding="UTF-8"?>
<!-- This network was created in GeNIe Academic, which can be used for academic teaching and research purposes only -->
<smile version="1.0" id="PGPD_Phoenix_H173_H252_Genie_NEW2024" numsamples="10000" discsamples="10000">
	<nodes>
		<cpt id="Conclusion">
			<state id="NotSource" />
			<state id="Source" />
			<probabilities>0.9824850222557913 0.01751497774420873</probabilities>
		</cpt>
		<cpt id="CCF">
			<state id="CCF_0_1" />
			<state id="CCF_1_2" />
			<state id="CCF_2_3" />
			<state id="CCF_3_4" />
			<state id="CCF_4_5" />
			<state id="CCF_5_6" />
			<state id="CCF_6_7" />
			<state id="CCF_7_8" />
			<state id="CCF_8_9" />
			<state id="CCF_9_10" />
			<parents>Conclusion</parents>
			<probabilities>0.0004187160866092953 0.02690008284756794 0.2473044685440473 0.3789500003731872 0.2181809361028803 0.07828050245930393 0.02069024712459229 0.01098737880744285 0.0110620162560363 0.007225651398332599 4.185851820845543e-05 0.005902051067392214 0.0343658434491419 0.05027208036835496 0.06868982838007534 0.07036416910841356 0.08794474675596484 0.1038509836751779 0.1716617831728757 0.4069066555043951</probabilities>
		</cpt>
		<cpt id="CMPS">
			<state id="CMPS_0" />
			<state id="CMPS_1" />
			<state id="CMPS_10" />
			<state id="CMPS_11" />
			<state id="CMPS_12" />
			<state id="CMPS_13" />
			<state id="CMPS_14" />
			<state id="CMPS_15" />
			<state id="CMPS_16" />
			<state id="CMPS_17" />
			<state id="CMPS_18" />
			<state id="CMPS_19" />
			<state id="CMPS_2" />
			<state id="CMPS_20" />
			<state id="CMPS_21" />
			<state id="CMPS_22" />
			<state id="CMPS_23" />
			<state id="CMPS_24" />
			<state id="CMPS_25" />
			<state id="CMPS_26" />
			<state id="CMPS_27" />
			<state id="CMPS_3" />
			<state id="CMPS_4" />
			<state id="CMPS_5" />
			<state id="CMPS_6" />
			<state id="CMPS_7" />
			<state id="CMPS_8" />
			<state id="CMPS_9" />
			<parents>CCF Conclusion</parents>
			<probabilities>0.0006265664160401004 0.4216791979949876 0.0006265664160401004 0.0006265664160401004 0.0006265664160401004 0.0006265664160401004 0.0006265664160401004 0.0006265664160401004 0.0006265664160401004 0.0006265664160401004 0.0006265664160401004 0.0006265664160401004 0.4392230576441104 0.0006265664160401004 0.0006265664160401004 0.0006265664160401004 0.0006265664160401004 0.0006265664160401004 0.0006265664160401004 0.0006265664160401004 0.0006265664160401004 0.105889724310777 0.01817042606516292 0.0006265664160401004 0.0006265664160401004 0.0006265664160401004 0.0006265664160401004 0.0006265664160401004 0.03571428571428572 0.03571428571428572 0.03571428571428572 0.03571428571428572 0.03571428571428572 0.03571428571428572 0.03571428571428572 0.03571428571428572 0.03571428571428572 0.03571428571428572 0.03571428571428572 0.03571428571428572 0.03571428571428572 0.03571428571428572 0.03571428571428572 0.03571428571428572 0.03571428571428572 0.03571428571428572 0.03571428571428572 0.03571428571428572 0.03571428571428572 0.03571428571428572 0.03571428571428572 0.03571428571428572 0.03571428571428572 0.03571428571428572 0.03571428571428572 0.03571428571428572 0.001674261937784823 0.3836437487616406 9.906875371507827e-06 9.906875371507827e-06 9.906875371507827e-06 9.906875371507827e-06 9.906875371507827e-06 9.906875371507827e-06 9.906875371507827e-06 9.906875371507827e-06 9.906875371507827e-06 9.906875371507827e-06 0.487943332672875 9.906875371507827e-06 9.906875371507827e-06 9.906875371507827e-06 9.906875371507827e-06 9.906875371507827e-06 9.906875371507827e-06 9.906875371507827e-06 9.906875371507827e-06 0.1073608084010303 0.01831781256191798 0.0008420844065781653 9.906875371507827e-06 9.906875371507827e-06 9.906875371507827e-06 9.906875371507827e-06 0.002380952380952381 0.2023809523809524 0.06904761904761907 0.002380952380952381 0.002380952380952381 0.002380952380952381 0.002380952380952381 0.002380952380952381 0.002380952380952381 0.002380952380952381 0.002380952380952381 0.002380952380952381 0.2690476190476191 0.002380952380952381 0.002380952380952381 0.002380952380952381 0.002380952380952381 0.002380952380952381 0.002380952380952381 0.002380952380952381 0.002380952380952381 0.002380952380952381 0.1357142857142857 0.1357142857142857 0.06904761904761907 0.002380952380952381 0.06904761904761907 0.002380952380952381 0.001600594968634806 0.3874463773739464 1.077841729720408e-06 1.077841729720408e-06 1.077841729720408e-06 1.077841729720408e-06 1.077841729720408e-06 1.077841729720408e-06 1.077841729720408e-06 1.077841729720408e-06 1.077841729720408e-06 1.077841729720408e-06 0.4852281790941818 1.077841729720408e-06 1.077841729720408e-06 1.077841729720408e-06 1.077841729720408e-06 1.077841729720408e-06 1.077841729720408e-06 1.077841729720408e-06 1.077841729720408e-06 0.1077421371445817 0.01545301687900149 0.002174006768846063 0.0002726939576192632 6.143697859406325e-05 1.077841729720408e-06 1.077841729720408e-06 0.0004302925989672978 0.2775387263339071 0.02452667814113597 0.02452667814113597 0.01247848537005164 0.0004302925989672978 0.0004302925989672978 0.0004302925989672978 0.0004302925989672978 0.0004302925989672978 0.0004302925989672978 0.0004302925989672978 0.2895869191049914 0.0004302925989672978 0.0004302925989672978 0.0004302925989672978 0.0004302925989672978 0.0004302925989672978 0.0004302925989672978 0.0004302925989672978 0.0004302925989672978 0.09681583476764201 0.0004302925989672978 0.03657487091222031 0.04862306368330465 0.04862306368330465 0.09681583476764201 0.03657487091222031 0.001339997917903498 0.3618071753547302 7.034109805267705e-07 7.034109805267705e-07 7.034109805267705e-07 7.034109805267705e-07 7.034109805267705e-07 7.034109805267705e-07 7.034109805267705e-07 7.034109805267705e-07 7.034109805267705e-07 7.034109805267705e-07 0.4928019954362696 7.034109805267705e-07 7.034109805267705e-07 7.034109805267705e-07 7.034109805267705e-07 7.034109805267705e-07 7.034109805267705e-07 7.034109805267705e-07 7.034109805267705e-07 0.1214825933918759 0.01959773332845635 0.002541423872643222 0.0003749180526207687 4.009442589002592e-05 7.034109805267705e-07 7.034109805267705e-07 0.000295159386068477 0.1821133412042503 0.0333530106257379 0.04988193624557261 0.0333530106257379 0.02508854781582054 0.008559622195985833 0.008559622195985833 0.000295159386068477 0.000295159386068477 0.000295159386068477 0.000295159386068477 0.2317001180637544 0.000295159386068477 0.000295159386068477 0.000295159386068477 0.000295159386068477 0.000295159386068477 0.000295159386068477 0.000295159386068477 0.000295159386068477 0.09946871310507675 0.06641086186540733 0.05814639905548997 0.05814639905548997 0.008559622195985833 0.0912042502951594 0.04161747343565526 0.001403746255454941 0.3283630046278423 1.221711275417703e-06 1.221711275417703e-06 1.221711275417703e-06 1.221711275417703e-06 1.221711275417703e-06 1.221711275417703e-06 1.221711275417703e-06 1.221711275417703e-06 1.221711275417703e-06 1.221711275417703e-06 0.4959475836994395 1.221711275417703e-06 1.221711275417703e-06 1.221711275417703e-06 1.221711275417703e-06 1.221711275417703e-06 1.221711275417703e-06 1.221711275417703e-06 1.221711275417703e-06 0.1432981806275687 0.02617027723072262 0.004345627006660771 0.0003433008683923747 0.0001038454584105048 1.221711275417703e-06 1.221711275417703e-06 0.0002164502164502165 0.0487012987012987 0.06688311688311689 0.0487012987012987 0.04264069264069264 0.03051948051948052 0.02445887445887446 0.006277056277056278 0.01233766233766234 0.0002164502164502165 0.0002164502164502165 0.0002164502164502165 0.1093073593073593 0.0002164502164502165 0.0002164502164502165 0.0002164502164502165 0.0002164502164502165 0.0002164502164502165 0.0002164502164502165 0.0002164502164502165 0.0002164502164502165 0.1335497835497836 0.09112554112554112 0.0487012987012987 0.07900432900432901 0.06688311688311689 0.1093073593073593 0.07900432900432901 0.00067077073941408 0.3044175530828214 3.404927611238985e-06 3.404927611238985e-06 3.404927611238985e-06 3.404927611238985e-06 3.404927611238985e-06 3.404927611238985e-06 3.404927611238985e-06 3.404927611238985e-06 3.404927611238985e-06 3.404927611238985e-06 0.487561799436144 3.404927611238985e-06 3.404927611238985e-06 3.404927611238985e-06 3.404927611238985e-06 3.404927611238985e-06 3.404927611238985e-06 3.404927611238985e-06 3.404927611238985e-06 0.1619826212494722 0.03527845498004712 0.008011794669245332 0.001624150470560996 0.0002894188469553137 9.874290072593057e-05 3.404927611238985e-06 0.0002113271344040575 0.03571428571428571 0.07713440405748098 0.08896872358410821 0.03571428571428571 0.04754860524091294 0.0238799661876585 0.0002113271344040575 0.006128486897717667 0.0002113271344040575 0.0002113271344040575 0.0002113271344040575 0.1126373626373626 0.0002113271344040575 0.0002113271344040575 0.0002113271344040575 0.0002113271344040575 0.0002113271344040575 0.0002113271344040575 0.0002113271344040575 0.0002113271344040575 0.07713440405748098 0.08305156382079459 0.1185545224006762 0.06530008453085376 0.08305156382079459 0.05938292476754015 0.08305156382079459 0.001094740095821957 0.2773298645098141 1.28792952449642e-05 1.28792952449642e-05 1.28792952449642e-05 1.28792952449642e-05 1.28792952449642e-05 1.28792952449642e-05 1.28792952449642e-05 1.28792952449642e-05 1.28792952449642e-05 1.28792952449642e-05 0.4893745814229045 1.28792952449642e-05 1.28792952449642e-05 1.28792952449642e-05 1.28792952449642e-05 1.28792952449642e-05 1.28792952449642e-05 1.28792952449642e-05 1.28792952449642e-05 0.1799623924578847 0.0385992478491577 0.009028385966719902 0.002897841430116944 0.0007341198289629591 0.0003734995621039617 0.0003734995621039617 0.0001692620176032498 0.00964793500338524 0.1139133378469871 0.0617806364251862 0.0617806364251862 0.02386594448205823 0.04282329045362222 0.02386594448205823 0.01912660798916723 0.0001692620176032498 0.0001692620176032498 0.0001692620176032498 0.04282329045362222 0.0001692620176032498 0.0001692620176032498 0.0001692620176032498 0.0001692620176032498 0.0001692620176032498 0.0001692620176032498 0.0001692620176032498 0.0001692620176032498 0.0617806364251862 0.09021665538253217 0.06651997291807719 0.09969532836831416 0.07125930941096818 0.1139133378469871 0.09495599187542315 0.0007031325768596644 0.257322277179711 0.0007031325768596644 2.424595092619532e-05 2.424595092619532e-05 0.0007031325768596644 2.424595092619532e-05 2.424595092619532e-05 2.424595092619532e-05 2.424595092619532e-05 2.424595092619532e-05 0.0007031325768596644 0.4969692561342255 2.424595092619532e-05 0.0007031325768596644 2.424595092619532e-05 2.424595092619532e-05 2.424595092619532e-05 2.424595092619532e-05 2.424595092619532e-05 2.424595092619532e-05 0.1819658617010959 0.05094074289593637 0.007491998836194355 0.001382019202793133 2.424595092619532e-05 2.424595092619532e-05 2.424595092619532e-05 0.0001434308663224326 0.0001434308663224326 0.1166092943201377 0.128657487091222 0.1045611015490533 0.08448078026391279 0.06440045897877222 0.02022375215146299 0.04030407343660355 0.01620768789443488 0.01219162363740677 0.008175559380378656 0.004159495123350545 0.004159495123350545 0.0001434308663224326 0.0001434308663224326 0.0001434308663224326 0.0001434308663224326 0.0001434308663224326 0.0001434308663224326 0.0001434308663224326 0.008175559380378656 0.02022375215146299 0.0242398164084911 0.06440045897877222 0.092512908777969 0.08849684452094089 0.09652897303499712 0.0006983912917830652 0.1942250264907041 2.408245833734707e-05 0.0006983912917830652 0.0006983912917830652 0.0006983912917830652 0.001372700125228783 2.408245833734707e-05 0.002721317792120219 0.002721317792120219 0.001372700125228783 0.002047008958674501 0.445742221365957 2.408245833734707e-05 2.408245833734707e-05 2.408245833734707e-05 2.408245833734707e-05 2.408245833734707e-05 2.408245833734707e-05 2.408245833734707e-05 2.408245833734707e-05 0.2421009536653501 0.07891821597148636 0.01890472979481745 0.005418553125903091 0.0006983912917830652 0.0006983912917830652 2.408245833734707e-05 8.689607229753211e-05 8.689607229753211e-05 0.08524504692387901 0.1047097671185262 0.1241744873131734 0.1266075773375043 0.1144421272158498 0.1144421272158498 0.05848105665623912 0.04874869655891552 0.04144942648592282 0.00981925616962113 8.689607229753211e-05 0.00981925616962113 0.004953076120959331 8.689607229753211e-05 8.689607229753211e-05 8.689607229753211e-05 8.689607229753211e-05 8.689607229753211e-05 8.689607229753211e-05 0.004953076120959331 0.004953076120959331 0.00981925616962113 0.02198470629127563 0.01955161626694473 0.02198470629127563 0.07307959680222452 3.685684800235883e-05 0.09498009730207872 3.685684800235883e-05 3.685684800235883e-05 3.685684800235883e-05 3.685684800235883e-05 3.685684800235883e-05 3.685684800235883e-05 3.685684800235883e-05 3.685684800235883e-05 0.003132832080200501 0.007260799056464691 0.4118015627303553 0.003132832080200501 0.002100840336134454 0.001068848592068406 3.685684800235883e-05 3.685684800235883e-05 3.685684800235883e-05 3.685684800235883e-05 3.685684800235883e-05 0.2817706029780333 0.1310998083443904 0.04441250184284239 0.01551673300899307 0.002100840336134454 3.685684800235883e-05 0.001068848592068406 3.670532961385993e-05 3.670532961385993e-05 0.005175451475554251 0.002092203787990016 0.01134194685068272 0.0123696960798708 0.01545294376743503 0.02881368374688005 0.02778593451769197 0.0308691822052562 0.03600792835119659 0.05656291293495816 3.670532961385993e-05 0.07506239906034357 0.1120613713111144 0.1521435912494494 0.106922625165174 0.1172001174570548 0.1788650712083394 0.0216194391425635 0.003119953017178094 3.670532961385993e-05 3.670532961385993e-05 3.670532961385993e-05 0.002092203787990016 0.001064454558801938 3.670532961385993e-05 0.003119953017178094</probabilities>
		</cpt>
		<cpt id="RF">
			<state id="RF_0_1" />
			<state id="RF_1_2" />
			<state id="RF_2_3" />
			<state id="RF_3_4" />
			<state id="RF_4_5" />
			<state id="RF_5_6" />
			<state id="RF_6_7" />
			<state id="RF_7_8" />
			<state id="RF_8_9" />
			<state id="RF_9_10" />
			<parents>CCF Conclusion</parents>
			<probabilities>0.7385964912280701 0.0719298245614035 0.0719298245614035 0.0719298245614035 0.001754385964912281 0.03684210526315789 0.001754385964912281 0.001754385964912281 0.001754385964912281 0.001754385964912281 0.1 0.1 0.1 0.1 0.1 0.1 0.1 0.1 0.1 0.1 0.5437170596393898 0.2641054091539529 0.114868238557559 0.03830790568654647 0.03220527045769764 0.006685159500693483 2.773925104022192e-05 2.773925104022192e-05 2.773925104022192e-05 2.773925104022192e-05 0.8066666666666668 0.14 0.006666666666666668 0.006666666666666668 0.006666666666666668 0.006666666666666668 0.006666666666666668 0.006666666666666668 0.006666666666666668 0.006666666666666668 0.2855017353251849 0.3435068658518183 0.2194688395955938 0.09078315980081485 0.03271767013731703 0.02619888335596801 0.001632714652180474 0.0001237362305719028 6.337709370755998e-05 3.017956843217142e-06 0.3626506024096386 0.1939759036144579 0.2662650602409639 0.04939759036144578 0.02530120481927711 0.02530120481927711 0.02530120481927711 0.04939759036144578 0.001204819277108434 0.001204819277108434 0.1367675733165265 0.3507001752900163 0.2911015697319441 0.135625233884151 0.044789553502846 0.03616292123766569 0.004571327280247375 0.0002383156402024698 4.13605656549741e-05 1.969550745474957e-06 0.1661157024793389 0.4140495867768595 0.1826446280991736 0.1 0.01735537190082645 0.01735537190082645 0.05041322314049587 0.05041322314049587 0.0008264462809917356 0.0008264462809917356 0.1017377621181541 0.3349673314404953 0.3426299045599152 0.1386823110867855 0.04885232442787261 0.02771183251804468 0.004655697328361783 0.0004139157801115178 0.0003454999486881264 3.420791571169569e-06 0.08545454545454545 0.3157575757575758 0.2672727272727273 0.06121212121212121 0.03696969696969696 0.03696969696969696 0.04909090909090909 0.09757575757575758 0.04909090909090909 0.0006060606060606061 0.07399180093431214 0.3335017637525026 0.4065306511583564 0.1254743064162456 0.04977595576318047 0.007255219754028029 0.001725617313375918 0.0009629135284583849 0.0003908856897702354 0.0003908856897702354 0.1071005917159763 0.2136094674556213 0.1781065088757396 0.1307692307692308 0.03609467455621301 0.08343195266272189 0.04792899408284023 0.07159763313609467 0.1189349112426036 0.01242603550295858 0.01950955643707177 0.132023079697079 0.3779661016949152 0.2474215650919582 0.1075009015506672 0.0714388748647674 0.03465560764514965 0.00580598629642986 0.003642264695275875 3.606202668589975e-05 0.0004739336492890996 0.03838862559241706 0.07630331753554503 0.104739336492891 0.08578199052132703 0.07630331753554503 0.06682464454976304 0.161611374407583 0.1710900473933649 0.2184834123222749 0.001425661914460285 0.03536999321113374 0.2078071961982349 0.160285132382892 0.1589273591310251 0.1860828241683639 0.1358452138492872 0.07746096401900882 0.02858112695179905 0.008214528173794975 0.0004016064257028112 0.0004016064257028112 0.01646586345381526 0.008433734939759036 0.008433734939759036 0.05662650602409638 0.05662650602409638 0.1048192771084337 0.185140562248996 0.5626506024096385 6.743088334457182e-05 0.002764666217127444 0.008159136884693189 0.03917734322319622 0.04726904922454483 0.1619015509103169 0.4086985839514498 0.245515846257586 0.05805799055967633 0.02838840188806473 0.00024330900243309 0.00024330900243309 0.00024330900243309 0.00024330900243309 0.00024330900243309 0.005109489051094891 0.02457420924574209 0.0635036496350365 0.08783454987834551 0.8177615571776157 0.0001031991744066047 0.0001031991744066047 0.0001031991744066047 0.0021671826625387 0.006295149638802889 0.07027863777089782 0.443859649122807 0.3654282765737874 0.06821465428276573 0.04344685242518059 0.0001027749229188078 0.0001027749229188078 0.0001027749229188078 0.0001027749229188078 0.002158273381294964 0.0001027749229188078 0.0001027749229188078 0.0001027749229188078 0.00421377183967112 0.9929085303186023</probabilities>
		</cpt>
		<cpt id="CMS">
			<state id="CMS_0" />
			<state id="CMS_1" />
			<state id="CMS_10" />
			<state id="CMS_11" />
			<state id="CMS_12" />
			<state id="CMS_13" />
			<state id="CMS_14" />
			<state id="CMS_15" />
			<state id="CMS_16" />
			<state id="CMS_17" />
			<state id="CMS_18" />
			<state id="CMS_19" />
			<state id="CMS_2" />
			<state id="CMS_20" />
			<state id="CMS_21" />
			<state id="CMS_22" />
			<state id="CMS_23" />
			<state id="CMS_24" />
			<state id="CMS_25" />
			<state id="CMS_26" />
			<state id="CMS_27" />
			<state id="CMS_28" />
			<state id="CMS_29" />
			<state id="CMS_3" />
			<state id="CMS_4" />
			<state id="CMS_5" />
			<state id="CMS_6" />
			<state id="CMS_7" />
			<state id="CMS_8" />
			<state id="CMS_9" />
			<parents>RF Conclusion</parents>
			<probabilities>0.1001230510661925 0.3388121070244152 0.0001815753537718153 1.500622758444755e-06 1.500622758444755e-06 1.500622758444755e-06 1.500622758444755e-06 1.500622758444755e-06 1.500622758444755e-06 1.500622758444755e-06 1.500622758444755e-06 1.500622758444755e-06 0.286500397665031 1.500622758444755e-06 1.500622758444755e-06 1.500622758444755e-06 1.500622758444755e-06 1.500622758444755e-06 1.500622758444755e-06 1.500622758444755e-06 1.500622758444755e-06 1.500622758444755e-06 1.500622758444755e-06 0.1778252974984619 0.06239739491889134 0.02296102882696319 0.007474601959813323 0.002702621587959003 0.0004516874502918712 0.0005417248157985565 0.02140350877192983 0.4003508771929825 0.0003508771929824562 0.0003508771929824562 0.0003508771929824562 0.0003508771929824562 0.0003508771929824562 0.0003508771929824562 0.0003508771929824562 0.0003508771929824562 0.0003508771929824562 0.0003508771929824562 0.2740350877192983 0.0003508771929824562 0.0003508771929824562 0.0003508771929824562 0.0003508771929824562 0.0003508771929824562 0.0003508771929824562 0.0003508771929824562 0.0003508771929824562 0.0003508771929824562 0.0003508771929824562 0.2108771929824562 0.06350877192982457 0.0003508771929824562 0.0003508771929824562 0.0003508771929824562 0.02140350877192983 0.0003508771929824562 0.01577931307050946 0.1977799059063168 0.001049623397253194 0.0003199793267513359 0.0001375683091258712 4.636280031313892e-05 7.600459067727692e-07 7.600459067727692e-07 7.600459067727692e-07 7.600459067727692e-07 7.600459067727692e-07 7.600459067727692e-07 0.3381907867235182 7.600459067727692e-07 7.600459067727692e-07 7.600459067727692e-07 7.600459067727692e-07 7.600459067727692e-07 7.600459067727692e-07 7.600459067727692e-07 7.600459067727692e-07 7.600459067727692e-07 7.600459067727692e-07 0.2333500543432824 0.1144180708514795 0.05490647635117162 0.02489986395178269 0.01213109271800017 0.005199474048232514 0.001779267467755053 0.03656565656565657 0.1941414141414142 0.000202020202020202 0.000202020202020202 0.000202020202020202 0.000202020202020202 0.000202020202020202 0.000202020202020202 0.000202020202020202 0.000202020202020202 0.000202020202020202 0.000202020202020202 0.3274747474747475 0.000202020202020202 0.000202020202020202 0.000202020202020202 0.000202020202020202 0.000202020202020202 0.000202020202020202 0.000202020202020202 0.000202020202020202 0.000202020202020202 0.000202020202020202 0.2183838383838384 0.08505050505050506 0.0486868686868687 0.06080808080808082 0.01232323232323232 0.000202020202020202 0.01232323232323232 0.02188087554984216 0.3316639119902756 0.0006829848449073469 0.0001582845799337129 0.0001582845799337129 5.334452693898611e-05 8.745004416227231e-07 8.745004416227231e-07 8.745004416227231e-07 8.745004416227231e-07 8.745004416227231e-07 8.745004416227231e-07 0.304431968238144 8.745004416227231e-07 8.745004416227231e-07 8.745004416227231e-07 8.745004416227231e-07 8.745004416227231e-07 8.745004416227231e-07 8.745004416227231e-07 8.745004416227231e-07 8.745004416227231e-07 8.745004416227231e-07 0.1695840001399201 0.09607349301711399 0.04806341877202649 0.015794352476148 0.007241738157077771 0.003096606063786063 0.001102745056886254 0.01462829736211031 0.3023980815347722 0.0002398081534772182 0.01462829736211031 0.0002398081534772182 0.0002398081534772182 0.0002398081534772182 0.0002398081534772182 0.0002398081534772182 0.0002398081534772182 0.0002398081534772182 0.0002398081534772182 0.2016786570743405 0.0002398081534772182 0.0002398081534772182 0.0002398081534772182 0.0002398081534772182 0.0002398081534772182 0.0002398081534772182 0.0002398081534772182 0.0002398081534772182 0.0002398081534772182 0.0002398081534772182 0.1872901678657075 0.115347721822542 0.0577937649880096 0.0434052757793765 0.01462829736211031 0.01462829736211031 0.02901678657074341 0.09225903553196248 0.4853275571013077 0.0006121992393271909 2.033884516037179e-06 2.033884516037179e-06 2.033884516037179e-06 2.033884516037179e-06 2.033884516037179e-06 2.033884516037179e-06 2.033884516037179e-06 2.033884516037179e-06 2.033884516037179e-06 0.2098989159395529 2.033884516037179e-06 2.033884516037179e-06 2.033884516037179e-06 2.033884516037179e-06 2.033884516037179e-06 2.033884516037179e-06 2.033884516037179e-06 2.033884516037179e-06 2.033884516037179e-06 2.033884516037179e-06 0.103119978847601 0.05894400715927348 0.03343909532816726 0.009886712632456727 0.003296926800496267 0.00219862916183619 0.0009782984522138832 0.082648401826484 0.219634703196347 0.00045662100456621 0.00045662100456621 0.00045662100456621 0.00045662100456621 0.00045662100456621 0.00045662100456621 0.00045662100456621 0.00045662100456621 0.00045662100456621 0.00045662100456621 0.0552511415525114 0.00045662100456621 0.00045662100456621 0.00045662100456621 0.00045662100456621 0.00045662100456621 0.00045662100456621 0.00045662100456621 0.00045662100456621 0.00045662100456621 0.00045662100456621 0.1922374429223744 0.1374429223744292 0.082648401826484 0.082648401826484 0.00045662100456621 0.082648401826484 0.0552511415525114 0.2947179402176916 0.5513067020277364 0.001331565279849715 0.0006685452234930107 5.525167136305874e-06 5.525167136305874e-06 5.525167136305874e-06 5.525167136305874e-06 5.525167136305874e-06 5.525167136305874e-06 5.525167136305874e-06 5.525167136305874e-06 0.07194320128183879 5.525167136305874e-06 5.525167136305874e-06 5.525167136305874e-06 5.525167136305874e-06 5.525167136305874e-06 5.525167136305874e-06 5.525167136305874e-06 5.525167136305874e-06 5.525167136305874e-06 5.525167136305874e-06 0.02420575722415603 0.01757555666058899 0.01127686612520029 0.01227139620973535 0.009619315984308525 0.00464666556163324 0.0003370351953146583 0.0008547008547008549 0.1034188034188034 0.0008547008547008549 0.0008547008547008549 0.0008547008547008549 0.0008547008547008549 0.0008547008547008549 0.0008547008547008549 0.0008547008547008549 0.0008547008547008549 0.0008547008547008549 0.0008547008547008549 0.1034188034188034 0.0008547008547008549 0.0008547008547008549 0.0008547008547008549 0.0008547008547008549 0.0008547008547008549 0.0008547008547008549 0.0008547008547008549 0.0008547008547008549 0.0008547008547008549 0.0008547008547008549 0.1034188034188034 0.2572649572649574 0.0008547008547008549 0.205982905982906 0.05213675213675215 0.1547008547008547 0.0008547008547008549 0.7041240239557274 0.2046925934349177 0.001372147676446062 7.580926389204761e-06 0.0004624365097414904 0.0004624365097414904 7.580926389204761e-06 0.0004624365097414904 7.580926389204761e-06 7.580926389204761e-06 7.580926389204761e-06 7.580926389204761e-06 0.02911833826093549 7.580926389204761e-06 7.580926389204761e-06 7.580926389204761e-06 7.580926389204761e-06 7.580926389204761e-06 7.580926389204761e-06 7.580926389204761e-06 7.580926389204761e-06 7.580926389204761e-06 7.580926389204761e-06 0.01501781517701463 0.01183382609354863 0.01183382609354863 0.008194981426730346 0.005010992343264347 0.004101281176559776 0.003191570009855204 0.07076023391812865 0.03567251461988304 0.0005847953216374269 0.0005847953216374269 0.0005847953216374269 0.0005847953216374269 0.0005847953216374269 0.0005847953216374269 0.0005847953216374269 0.0005847953216374269 0.0005847953216374269 0.0005847953216374269 0.1409356725146199 0.0005847953216374269 0.0005847953216374269 0.0005847953216374269 0.0005847953216374269 0.0005847953216374269 0.0005847953216374269 0.0005847953216374269 0.0005847953216374269 0.0005847953216374269 0.0005847953216374269 0.07076023391812865 0.1760233918128655 0.1409356725146199 0.1058479532163743 0.1058479532163743 0.07076023391812865 0.07076023391812865 0.3012032336905434 0.4151344237638655 0.001146832111299117 0.002274863696183494 0.001146832111299117 1.880052641473962e-05 1.880052641473962e-05 1.880052641473962e-05 1.880052641473962e-05 1.880052641473962e-05 1.880052641473962e-05 1.880052641473962e-05 0.1714796014288401 1.880052641473962e-05 1.880052641473962e-05 1.880052641473962e-05 1.880052641473962e-05 1.880052641473962e-05 1.880052641473962e-05 1.880052641473962e-05 1.880052641473962e-05 1.880052641473962e-05 1.880052641473962e-05 0.0316036849031773 0.02483549539387104 0.01919533746944915 0.01355517954502727 0.003402895281067871 0.009043053205489758 0.005658958450836625 0.09576719576719576 0.06402116402116402 0.03227513227513227 0.000529100529100529 0.000529100529100529 0.000529100529100529 0.000529100529100529 0.000529100529100529 0.000529100529100529 0.000529100529100529 0.000529100529100529 0.000529100529100529 0.06402116402116402 0.000529100529100529 0.000529100529100529 0.000529100529100529 0.000529100529100529 0.000529100529100529 0.000529100529100529 0.000529100529100529 0.000529100529100529 0.000529100529100529 0.000529100529100529 0.09576719576719576 0.1275132275132275 0.2227513227513227 0.1275132275132275 0.06402116402116402 0.000529100529100529 0.09576719576719576 3.757985719654265e-05 0.1646373543780534 0.00454716272078166 0.002292371288989101 3.757985719654265e-05 3.757985719654265e-05 3.757985719654265e-05 3.757985719654265e-05 3.757985719654265e-05 3.757985719654265e-05 3.757985719654265e-05 3.757985719654265e-05 0.4667794062382563 3.757985719654265e-05 3.757985719654265e-05 3.757985719654265e-05 3.757985719654265e-05 3.757985719654265e-05 3.757985719654265e-05 3.757985719654265e-05 3.757985719654265e-05 3.757985719654265e-05 3.757985719654265e-05 0.2255167230364525 0.06091694851559563 0.03836903419767004 0.009056745584366779 0.009056745584366779 0.009056745584366779 0.009056745584366779 0.0002666666666666667 0.0002666666666666667 0.09626666666666667 0.06426666666666667 0.08026666666666667 0.01626666666666667 0.01626666666666667 0.0002666666666666667 0.0002666666666666667 0.0002666666666666667 0.0002666666666666667 0.0002666666666666667 0.01626666666666667 0.0002666666666666667 0.0002666666666666667 0.0002666666666666667 0.0002666666666666667 0.0002666666666666667 0.0002666666666666667 0.0002666666666666667 0.0002666666666666667 0.0002666666666666667 0.0002666666666666667 0.1282666666666667 0.1282666666666667 0.09626666666666667 0.2082666666666667 0.09626666666666667 0.01626666666666667 0.03226666666666667 0.0001494768310911809 0.0001494768310911809 0.009118086696562033 0.02705530642750373 0.009118086696562033 0.0001494768310911809 0.0001494768310911809 0.0001494768310911809 0.0001494768310911809 0.0001494768310911809 0.0001494768310911809 0.0001494768310911809 0.08086696562032886 0.0001494768310911809 0.0001494768310911809 0.0001494768310911809 0.0001494768310911809 0.0001494768310911809 0.0001494768310911809 0.0001494768310911809 0.0001494768310911809 0.0001494768310911809 0.0001494768310911809 0.3947683109118086 0.2602391629297459 0.09880418535127056 0.03602391629297459 0.02705530642750373 0.02705530642750373 0.02705530642750373 0.0002207505518763797 0.0002207505518763797 0.07969094922737306 0.09293598233995586 0.01346578366445916 0.03995584988962472 0.0002207505518763797 0.0002207505518763797 0.01346578366445916 0.0002207505518763797 0.0002207505518763797 0.0002207505518763797 0.0002207505518763797 0.0002207505518763797 0.0002207505518763797 0.0002207505518763797 0.0002207505518763797 0.0002207505518763797 0.0002207505518763797 0.0002207505518763797 0.0002207505518763797 0.0002207505518763797 0.0002207505518763797 0.07969094922737306 0.1591611479028698 0.1194260485651214 0.07969094922737306 0.0532008830022075 0.1194260485651214 0.145916114790287 0.00033003300330033 0.00033003300330033 0.02013201320132013 0.00033003300330033 0.02013201320132013 0.00033003300330033 0.02013201320132013 0.07953795379537953 0.02013201320132013 0.00033003300330033 0.00033003300330033 0.02013201320132013 0.00033003300330033 0.00033003300330033 0.00033003300330033 0.02013201320132013 0.00033003300330033 0.02013201320132013 0.00033003300330033 0.00033003300330033 0.00033003300330033 0.00033003300330033 0.00033003300330033 0.09933993399339934 0.2577557755775578 0.1785478547854786 0.05973597359735974 0.05973597359735974 0.05973597359735974 0.05973597359735974 2.23563603845294e-05 2.23563603845294e-05 0.05770176615247038 0.05770176615247038 0.03020344287949922 0.02148446232953275 0.03892242342946568 0.03489827856025039 0.04831209479096803 0.07379834562933155 0.06172591102168567 0.06306729264475743 2.23563603845294e-05 0.06575005589090095 0.0456293315448245 0.0530069304717192 0.0308741336910351 0.0268499888218198 0.01343617259110217 0.009412027721886877 0.007399955287279231 0.006058573664207467 0.003375810418063939 0.005387882852671584 0.02550860719874804 0.03355689693717862 0.05233623966018332 0.03489827856025039 0.04428794992175274 0.05434831209479096</probabilities>
		</cpt>
	</nodes>
	<extensions>
		<genie version="1.0" app="GeNIe 4.0.1922.0 ACADEMIC" name="PGPD-Phoenix-H173-H252-Genie-NEW2024">
			<node id="Conclusion">
				<name>Conclusion</name>
				<interior color="ffff80" />
				<outline color="000080" />
				<font color="000000" name="Arial" size="8" />
				<position>145 96 217 144</position>
			</node>
			<node id="CCF">
				<name>CCF</name>
				<interior color="e5f6f7" />
				<outline color="000080" />
				<font color="000000" name="Arial" size="8" />
				<position>254 96 326 144</position>
			</node>
			<node id="CMPS">
				<name>CMPS</name>
				<interior color="e5f6f7" />
				<outline color="000080" />
				<font color="000000" name="Arial" size="8" />
				<position>145 168 217 216</position>
			</node>
			<node id="CMS">
				<name>CMS</name>
				<interior color="e5f6f7" />
				<outline color="000080" />
				<font color="000000" name="Arial" size="8" />
				<position>36 96 108 144</position>
			</node>
			<node id="RF">
				<name>RF</name>
				<interior color="e5f6f7" />
				<outline color="000080" />
				<font color="000000" name="Arial" size="8" />
				<position>145 24 217 72</position>
			</node>
			<textbox>
				<caption>Learning algorithm: Tree Augmented Naive Bayes\nAlgorithm parameters:\nClass variable: Conclusion\nSeed: 0\nMax search time: 0\n\nEM Log Likelihood: -802206</caption>
				<font color="000000" name="Arial" size="8" />
				<position>10 236 247 334</position>
			</textbox>
		</genie>
	</extensions>
</smile>
